"0","selected_tree <- rpart(cat3 ~ TAMAMU + DENSIDAD + SEXO + ESTUD + LAB + REGTEN+ IMPEXAC, data = data.train, method = ""class"","
"0","                      parms = list(split = ""information""))"
"0","print(selected_tree)"
"1","n="
"1"," "
"1","2954"
"1"," "
"1","

"
"1","node), split, n, loss, yval, (yprob)
"
"1","      * denotes terminal node

"
"1"," 1) root 2954 1903 1 (0.355788761 0.342924848 0.301286391)  "
"1","
"
"1","   2) REGTEN=0 975  283 1 (0.709743590 0.249230769 0.041025641)  "
"1","
"
"1","     4) IMPEXAC< 16.97 729   77 1 (0.894375857 0.101508916 0.004115226) *"
"1","
"
"1","     5) IMPEXAC>=16.97 246   77 2 (0.162601626 0.686991870 0.150406504) *"
"1","
"
"1","   3) REGTEN=1 1979 1129 3 (0.181404750 0.389085397 0.429509853)  "
"1","
"
"1","     6) IMPEXAC< 11.445 1199  521 2 (0.278565471 0.565471226 0.155963303)  "
"1","
"
"1","      12) IMPEXAC< 5.96 244   55 1 (0.774590164 0.159836066 0.065573770) *"
"1","
"
"1","      13) IMPEXAC>=5.96 955  316 2 (0.151832461 0.669109948 0.179057592) *"
"1","
"
"1","     7) IMPEXAC>=11.445 780  117 3 (0.032051282 0.117948718 0.850000000) *"
"1","
"
"0","summary(selected_tree)"
"1","Call:
"
"1","rpart(formula = cat3 ~ TAMAMU + DENSIDAD + SEXO + ESTUD + LAB + 
"
"1","    REGTEN + IMPEXAC, data = data.train, method = ""class"", parms = list(split = ""information""))
"
"1","  n="
"1"," "
"1","2954"
"1"," "
"1","

"
"1"," "
"1","         CP"
"1"," nsplit"
"1"," rel error"
"1","    xerror"
"1","       xstd"
"1","
1"
"1"," 0.25801366"
"1","      0"
"1"," 1.0000000"
"1"," 1.0000000"
"1"," 0.01367341"
"1","
2"
"1"," 0.07882291"
"1","      2"
"1"," 0.4839727"
"1"," 0.4844982"
"1"," 0.01323376"
"1","
3"
"1"," 0.06778770"
"1","      3"
"1"," 0.4051498"
"1"," 0.4130321"
"1"," 0.01262109"
"1","
4"
"1"," 0.01000000"
"1","      4"
"1"," 0.3373621"
"1"," 0.3473463"
"1"," 0.01190306"
"1","
"
"1","
Variable importance
"
"1","IMPEXAC "
"1"," REGTEN "
"1","    LAB "
"1","  ESTUD "
"1","
"
"1","     50 "
"1","     26 "
"1","     15 "
"1","      9 "
"1","
"
"1","
Node number "
"1","1"
"1",": "
"1","2954"
"1"," observations"
"1",",    complexity param="
"1","0.2580137"
"1","
"
"1","  predicted class=1  expected loss=0.6442112  P(node) =1
    class counts:  1051  1013   890
   probabilities: 0.356 0.343 0.301"
"1"," "
"1","
"
"1","  left son="
"1","2"
"1"," ("
"1","975"
"1"," obs)"
"1"," right son="
"1","3"
"1"," ("
"1","1979"
"1"," obs)"
"1","
"
"1","  Primary splits:
"
"1","      REGTEN   splits as  LR,         improve=477.38100, (0 missing)"
"1","
"
"1","      IMPEXAC  < 11.15  to the left,  improve=291.58620, (0 missing)"
"1","
"
"1","      LAB      splits as  RLLR,       improve=119.38620, (0 missing)"
"1","
"
"1","      ESTUD    splits as  LRRR,       improve= 66.14690, (0 missing)"
"1","
"
"1","      DENSIDAD splits as  RRL,        improve= 16.93913, (0 missing)"
"1","
"
"1","  Surrogate splits:
"
"1","      LAB     splits as  LLRR,       agree=0.734, adj=0.195, (0 split)"
"1","
"
"1","      ESTUD   splits as  RRRL,       agree=0.675, adj=0.016, (0 split)"
"1","
"
"1","      IMPEXAC < 38.145 to the right, agree=0.671, adj=0.003, (0 split)"
"1","
"
"1","
Node number "
"1","2"
"1",": "
"1","975"
"1"," observations"
"1",",    complexity param="
"1","0.0677877"
"1","
"
"1","  predicted class=1  expected loss=0.2902564  P(node) =0.3300609
    class counts:   692   243    40
   probabilities: 0.710 0.249 0.041"
"1"," "
"1","
"
"1","  left son="
"1","4"
"1"," ("
"1","729"
"1"," obs)"
"1"," right son="
"1","5"
"1"," ("
"1","246"
"1"," obs)"
"1","
"
"1","  Primary splits:
"
"1","      IMPEXAC  < 16.97  to the left,  improve=237.870000, (0 missing)"
"1","
"
"1","      LAB      splits as  RLLL,       improve= 45.916680, (0 missing)"
"1","
"
"1","      ESTUD    splits as  LLLR,       improve= 37.016750, (0 missing)"
"1","
"
"1","      DENSIDAD splits as  RLL,        improve=  4.187135, (0 missing)"
"1","
"
"1","      SEXO     splits as  LR,         improve=  3.848867, (0 missing)"
"1","
"
"1","
Node number "
"1","3"
"1",": "
"1","1979"
"1"," observations"
"1",",    complexity param="
"1","0.2580137"
"1","
"
"1","  predicted class=3  expected loss=0.5704901  P(node) =0.6699391
    class counts:   359   770   850
   probabilities: 0.181 0.389 0.430"
"1"," "
"1","
"
"1","  left son="
"1","6"
"1"," ("
"1","1199"
"1"," obs)"
"1"," right son="
"1","7"
"1"," ("
"1","780"
"1"," obs)"
"1","
"
"1","  Primary splits:
"
"1","      IMPEXAC  < 11.445 to the left,  improve=506.71900, (0 missing)"
"1","
"
"1","      LAB      splits as  RLLL,       improve=160.92960, (0 missing)"
"1","
"
"1","      ESTUD    splits as  LLRR,       improve=148.23380, (0 missing)"
"1","
"
"1","      DENSIDAD splits as  RLL,        improve= 32.09990, (0 missing)"
"1","
"
"1","      TAMAMU   splits as  LR,         improve= 22.27133, (0 missing)"
"1","
"
"1","  Surrogate splits:
"
"1","      ESTUD splits as  LLRR, agree=0.732, adj=0.321, (0 split)"
"1","
"
"1","      LAB   splits as  RLLL, agree=0.703, adj=0.246, (0 split)"
"1","
"
"1","
Node number "
"1","4"
"1",": "
"1","729"
"1"," observations"
"1","
"
"1","  predicted class=1  expected loss=0.1056241  P(node) =0.246784
    class counts:   652    74     3
   probabilities: 0.894 0.102 0.004"
"1"," "
"1","
"
"1","
Node number "
"1","5"
"1",": "
"1","246"
"1"," observations"
"1","
"
"1","  predicted class=2  expected loss=0.3130081  P(node) =0.08327691
    class counts:    40   169    37
   probabilities: 0.163 0.687 0.150"
"1"," "
"1","
"
"1","
Node number "
"1","6"
"1",": "
"1","1199"
"1"," observations"
"1",",    complexity param="
"1","0.07882291"
"1","
"
"1","  predicted class=2  expected loss=0.4345288  P(node) =0.4058903
    class counts:   334   678   187
   probabilities: 0.279 0.565 0.156"
"1"," "
"1","
"
"1","  left son="
"1","12"
"1"," ("
"1","244"
"1"," obs)"
"1"," right son="
"1","13"
"1"," ("
"1","955"
"1"," obs)"
"1","
"
"1","  Primary splits:
"
"1","      IMPEXAC  < 5.96   to the left,  improve=173.299200, (0 missing)"
"1","
"
"1","      LAB      splits as  RRLR,       improve= 45.357890, (0 missing)"
"1","
"
"1","      ESTUD    splits as  RRLL,       improve=  6.488791, (0 missing)"
"1","
"
"1","      SEXO     splits as  RL,         improve=  6.448302, (0 missing)"
"1","
"
"1","      DENSIDAD splits as  RLR,        improve=  2.511346, (0 missing)"
"1","
"
"1","  Surrogate splits:
"
"1","      LAB splits as  RRLR, agree=0.856, adj=0.291, (0 split)"
"1","
"
"1","
Node number "
"1","7"
"1",": "
"1","780"
"1"," observations"
"1","
"
"1","  predicted class=3  expected loss=0.15  P(node) =0.2640487
    class counts:    25    92   663
   probabilities: 0.032 0.118 0.850"
"1"," "
"1","
"
"1","
Node number "
"1","12"
"1",": "
"1","244"
"1"," observations"
"1","
"
"1","  predicted class=1  expected loss=0.2254098  P(node) =0.08259986
    class counts:   189    39    16
   probabilities: 0.775 0.160 0.066"
"1"," "
"1","
"
"1","
Node number "
"1","13"
"1",": "
"1","955"
"1"," observations"
"1","
"
"1","  predicted class=2  expected loss=0.3308901  P(node) =0.3232905
    class counts:   145   639   171
   probabilities: 0.152 0.669 0.179"
"1"," "
"1","
"
"1","
"
